Language model created by QuickLM on Fri May  8 03:16:21 EDT 2020
Copyright (c) 1996-2010 Carnegie Mellon University and Alexander I. Rudnicky

The model is in standard ARPA format, designed by Doug Paul while he was at MITRE.

The code that was used to produce this language model is available in Open Source.
Please visit http://www.speech.cs.cmu.edu/tools/ for more information

The (fixed) discount mass is 0.5. The backoffs are computed using the ratio method.
This model based on a corpus of 7 sentences and 11 words

\data\
ngram 1=11
ngram 2=16
ngram 3=9

\1-grams:
-0.8177 </s> -0.3010
-0.8177 <s> -0.2293
-1.6628 BAR -0.2293
-1.6628 IS -0.2293
-1.6628 JACK -0.2293
-1.6628 LISA -0.2293
-1.6628 MARY -0.2293
-1.6628 MY -0.2915
-1.6628 NAME -0.2915
-1.6628 SOFA -0.2293
-1.6628 TABLE -0.2293

\2-grams:
-1.1461 <s> BAR 0.0000
-1.1461 <s> JACK 0.0000
-1.1461 <s> LISA 0.0000
-1.1461 <s> MARY 0.0000
-1.1461 <s> MY 0.0000
-1.1461 <s> SOFA 0.0000
-1.1461 <s> TABLE 0.0000
-0.3010 BAR </s> -0.3010
-0.3010 IS </s> -0.3010
-0.3010 JACK </s> -0.3010
-0.3010 LISA </s> -0.3010
-0.3010 MARY </s> -0.3010
-0.3010 MY NAME 0.0000
-0.3010 NAME IS 0.0000
-0.3010 SOFA </s> -0.3010
-0.3010 TABLE </s> -0.3010

\3-grams:
-0.3010 <s> BAR </s>
-0.3010 <s> JACK </s>
-0.3010 <s> LISA </s>
-0.3010 <s> MARY </s>
-0.3010 <s> MY NAME
-0.3010 <s> SOFA </s>
-0.3010 <s> TABLE </s>
-0.3010 MY NAME IS
-0.3010 NAME IS </s>

\end\
