Language model created by QuickLM on Sat Mar 21 05:36:56 EDT 2020
Copyright (c) 1996-2010 Carnegie Mellon University and Alexander I. Rudnicky

The model is in standard ARPA format, designed by Doug Paul while he was at MITRE.

The code that was used to produce this language model is available in Open Source.
Please visit http://www.speech.cs.cmu.edu/tools/ for more information

The (fixed) discount mass is 0.5. The backoffs are computed using the ratio method.
This model based on a corpus of 8 sentences and 22 words

\data\
ngram 1=22
ngram 2=31
ngram 3=26

\1-grams:
-1.0314 </s> -0.3010
-1.0314 <s> -0.2586
-1.9345 A -0.2960
-1.4574 ARE -0.2803
-1.9345 DO -0.2803
-1.9345 FROM -0.2586
-1.9345 FUNNY -0.2586
-1.9345 HELLO -0.2586
-1.9345 HOW -0.2960
-1.6335 IS -0.2908
-1.9345 IT -0.2908
-1.9345 JACK -0.2586
-1.9345 JOKE -0.2586
-1.9345 ME -0.2960
-1.9345 NAME -0.2586
-1.9345 OLD -0.2856
-1.9345 TELL -0.2960
-1.9345 THINK -0.2960
-1.6335 WHAT -0.2750
-1.9345 WHERE -0.2856
-1.3324 YOU -0.2473
-1.9345 YOUR -0.2960

\2-grams:
-1.2041 <s> DO 0.0000
-1.2041 <s> HELLO 0.0000
-1.2041 <s> HOW 0.0000
-1.2041 <s> JACK 0.0000
-1.2041 <s> TELL 0.0000
-0.9031 <s> WHAT 0.0000
-1.2041 <s> WHERE 0.0000
-0.3010 A JOKE 0.0000
-0.3010 ARE YOU -0.0969
-0.3010 DO YOU -0.2430
-0.3010 FROM </s> -0.3010
-0.3010 FUNNY </s> -0.3010
-0.3010 HELLO </s> -0.3010
-0.3010 HOW OLD 0.0000
-0.6021 IS FUNNY 0.0000
-0.6021 IS YOUR 0.0000
-0.3010 IT IS -0.1761
-0.3010 JACK </s> -0.3010
-0.3010 JOKE </s> -0.3010
-0.3010 ME A 0.0000
-0.3010 NAME </s> -0.3010
-0.3010 OLD ARE 0.0000
-0.3010 TELL ME 0.0000
-0.3010 THINK IT 0.0000
-0.6021 WHAT ARE 0.0000
-0.6021 WHAT IS -0.1761
-0.3010 WHERE ARE 0.0000
-0.6021 YOU </s> -0.3010
-0.9031 YOU FROM 0.0000
-0.9031 YOU THINK 0.0000
-0.3010 YOUR NAME 0.0000

\3-grams:
-0.3010 <s> DO YOU
-0.3010 <s> HELLO </s>
-0.3010 <s> HOW OLD
-0.3010 <s> JACK </s>
-0.3010 <s> TELL ME
-0.6021 <s> WHAT ARE
-0.6021 <s> WHAT IS
-0.3010 <s> WHERE ARE
-0.3010 A JOKE </s>
-0.4771 ARE YOU </s>
-0.7782 ARE YOU FROM
-0.3010 DO YOU THINK
-0.3010 HOW OLD ARE
-0.3010 IS FUNNY </s>
-0.3010 IS YOUR NAME
-0.3010 IT IS FUNNY
-0.3010 ME A JOKE
-0.3010 OLD ARE YOU
-0.3010 TELL ME A
-0.3010 THINK IT IS
-0.3010 WHAT ARE YOU
-0.3010 WHAT IS YOUR
-0.3010 WHERE ARE YOU
-0.3010 YOU FROM </s>
-0.3010 YOU THINK IT
-0.3010 YOUR NAME </s>

\end\
